svm_type c_svc
kernel_type rbf
gamma 0.01
nr_class 3
total_sv 227
rho 1.8738 5.81782 3.07828
label 1 2 3
nr_sv 98 71 58
SV
0 5 1:-0.794667 2:0.0556633 3:-0.644867 4:-0.201586 5:-0.522514 6:-0.255282 7:-0.657154 8:-0.131814 9:-0.654348 10:-0.162088 11:-0.557579 12:-0.271954 
0 5 1:-0.705333 2:0.474539 3:-0.629208 4:0.379429 5:-0.584819 6:0.475924 7:-0.610508 8:0.359947 9:-0.653135 10:0.398827 11:-0.639568 12:0.405247 
5 0 1:-0.0751111 2:-0.651656 3:-0.207683 4:-0.577937 5:-0.0711348 6:-0.588665 7:-0.26206 8:-0.454948 9:-0.13444 10:-0.628054 11:-0.107065 12:-0.64094 
5 0 1:0.0216296 2:-0.0433096 3:-0.0655045 4:0.0675781 5:0.0485384 6:0.169969 7:-0.27983 8:0.295923 9:-0.15307 10:0.151285 11:-0.0631954 12:0.0999696 
5 0 1:-0.317333 2:0.0230554 3:-0.427736 4:0.133225 5:-0.377283 6:0.239954 7:-0.370805 8:0.0780529 9:-0.389368 10:0.0883234 11:-0.273279 12:-0.0120531 
0 5 1:-0.718222 2:-0.31667 3:-0.496007 4:-0.698273 5:-0.429057 6:-0.713911 7:-0.502825 8:-0.599379 9:-0.456436 10:-0.693041 11:-0.519246 12:-0.624835 
5 5 1:-0.814222 2:0.573655 3:-0.887886 4:0.651829 5:-0.723578 6:0.587455 7:-0.849051 8:0.603898 9:-0.782072 10:0.514875 11:-0.790449 12:0.546744 
5 5 1:-0.523259 2:0.304891 3:-0.544131 4:0.321088 5:-0.511764 6:0.443453 7:-0.592061 8:0.378401 9:-0.479832 10:0.236781 11:-0.546185 12:0.339208 
5 5 1:-0.757778 2:0.297422 3:-0.823582 4:0.334342 5:-0.88274 6:0.49942 7:-0.829736 8:0.365408 9:-0.839522 10:0.347175 11:-0.667146 12:0.164692 
3.768633329115709 0 1:-0.358074 2:-0.184371 3:-0.432016 4:-0.153473 5:-0.394504 6:-0.06227 7:-0.399971 8:-0.156765 9:-0.314414 10:-0.270709 11:-0.371985 12:-0.186266 
0 5 1:-0.92237 2:0.147598 3:-0.929328 4:0.0787455 5:-0.885702 6:0.0759845 7:-0.86402 8:0.060258 9:-0.844807 10:0.00274296 11:-0.723154 12:-0.138762 
5 5 1:-0.810519 2:0.483301 3:-0.822746 4:0.483275 5:-0.747162 6:0.505874 7:-0.852045 8:0.524903 9:-0.762835 10:0.406507 11:-0.789384 12:0.451231 
0 5 1:-0.755111 2:0.468074 3:-0.756668 4:0.454052 5:-0.691439 6:0.503958 7:-0.623545 8:0.306374 9:-0.628092 10:0.295016 11:-0.692594 12:0.384179 
5 0 1:-0.717037 2:-0.617467 3:-0.857508 4:-0.612065 5:-0.775901 6:-0.707356 7:-0.751606 8:-0.614066 9:-0.730168 10:-0.693295 11:-0.746473 12:-0.700496 
5 0 1:0.450667 2:-0.812253 3:0.398925 4:-0.795439 5:0.683102 6:-0.85751 7:0.395625 8:-0.763676 9:0.488324 10:-0.878888 11:0.462599 12:-0.798238 
5 0 1:0.0816296 2:-0.162968 3:-0.0557962 4:-0.00109586 5:0.120825 6:0.0372611 7:-0.095852 8:0.033801 9:-0.00662883 10:-0.0685741 11:-0.0121919 12:-0.0143827 
5 5 1:-0.675852 2:0.484594 3:-0.647894 4:0.440171 5:-0.690451 6:0.633742 7:-0.689797 8:0.488655 9:-0.631992 10:0.410643 11:-0.542459 12:0.33384 
1.571681357014359 5 1:-0.883111 2:-0.141133 3:-0.871496 4:-0.267338 5:-0.86859 6:-0.245197 7:-0.859288 8:-0.198004 9:-0.834583 10:-0.266152 11:-0.905127 12:-0.204193 
5 5 1:-0.666963 2:-0.00495583 3:-0.705935 4:-0.0280228 5:-0.68014 6:0.0306056 7:-0.773915 8:0.100273 9:-0.6618 10:-0.0582774 11:-0.797051 12:0.0945002 
0 5 1:0.169926 2:-0.603246 3:0.248291 4:-0.736054 5:0.490923 6:-0.782585 7:0.276257 8:-0.735336 9:0.310602 10:-0.78512 11:0.259756 12:-0.684088 
5 0 1:-0.572593 2:-0.155498 3:-0.687771 4:-0.0969055 5:-0.613997 6:-0.0907074 7:-0.567048 8:-0.181151 9:-0.577141 10:-0.19897 11:-0.61199 12:-0.156184 
5 5 1:-0.857778 2:0.749479 3:-0.98549 4:0.913479 5:-0.949761 6:1 7:-0.826259 8:0.715752 9:-0.737966 10:0.598008 11:-0.853804 12:0.758939 
0 5 1:-0.685333 2:-0.20204 3:-0.758964 4:-0.21839 5:-0.607196 6:-0.328291 7:-0.630885 8:-0.295358 9:-0.631558 10:-0.327847 11:-0.679497 12:-0.283399 
5 5 1:-0.519852 2:-0.617467 3:-0.587348 4:-0.675312 5:-0.532935 6:-0.68507 7:-0.643343 8:-0.507109 9:-0.557125 10:-0.650757 11:-0.72539 12:-0.473007 
5 0 1:-0.666074 2:-0.230051 3:-0.759904 4:-0.217659 5:-0.784237 6:-0.139414 7:-0.654063 8:-0.27455 9:-0.675837 10:-0.283285 11:-0.652452 12:-0.318242 
0 5 1:-0.863259 2:-0.122172 3:-0.819615 4:-0.288003 5:-0.821203 6:-0.25155 7:-0.813608 8:-0.210809 9:-0.751311 10:-0.323627 11:-0.853804 12:-0.221716 
5 5 1:-0.773481 2:0.0144365 3:-0.834021 4:0.00662735 5:-0.84029 6:0.0766904 7:-0.81158 8:0.0306939 9:-0.859971 10:0.0559986 11:-0.729649 12:-0.0922719 
5 0 1:-0.247111 2:-0.328449 3:-0.451015 4:-0.140844 5:-0.132891 6:-0.365099 7:-0.373895 8:-0.197533 9:-0.381309 10:-0.208676 11:-0.27445 12:-0.315001 
5 5 1:-0.724889 2:-0.0596854 3:-0.833812 4:-0.01362 5:-0.789283 6:-0.00640347 7:-0.77208 8:-0.0307881 9:-0.744032 10:-0.0966789 11:-0.782569 12:-0.0558088 
5 0 1:0.225481 2:-0.284924 3:0.114254 4:-0.159317 5:0.33198 6:-0.146675 7:0.114684 8:-0.173053 9:0.210519 10:-0.276617 11:0.133365 12:-0.133698 
1.838229638677335 5 1:0.578667 2:-0.59707 3:0.640169 4:-0.658509 5:1 6:-0.737004 7:0.612246 8:-0.635345 9:0.715264 10:-0.749504 11:0.715168 12:-0.673453 
5 0 1:-0.453926 2:-0.00208288 3:-0.528681 4:0.0467046 5:-0.456699 6:0.0948419 7:-0.473562 8:0.00611995 9:-0.428274 10:-0.0629194 11:-0.457382 12:-0.0129647 
5 0 1:-0.363556 2:-0.113553 3:-0.480975 4:-0.0237437 5:-0.285033 6:-0.0975647 7:-0.433966 8:-0.0509368 9:-0.353408 10:-0.154408 11:-0.414151 12:-0.069685 
0 5 1:-0.748 2:-0.0545141 3:-0.808445 4:-0.070083 5:-0.68749 6:-0.14607 7:-0.679946 8:-0.159872 9:-0.724102 10:-0.136853 11:-0.68759 12:-0.186468 
5 0 1:-0.512 2:-0.536738 3:-0.683595 4:-0.458853 5:-0.634289 6:-0.46342 7:-0.605679 8:-0.463798 9:-0.669425 10:-0.429801 11:-0.608902 12:-0.505318 
5 5 1:-0.739852 2:0.0792214 3:-0.925675 4:0.236863 5:-0.883727 6:0.254777 7:-0.7969 8:0.126071 9:-0.836662 10:0.141917 11:-0.818346 12:0.121645 
5 5 1:-0.677926 2:-0.0513539 3:-0.722428 4:-0.0758232 5:-0.760434 6:0.039278 7:-0.779999 8:0.0422747 9:-0.734067 10:-0.0370933 11:-0.717085 12:-0.0602654 
5 0 1:-0.687704 2:0.158371 3:-0.854898 4:0.308876 5:-0.761422 6:0.295013 7:-0.805978 8:0.282365 9:-0.772713 10:0.221927 11:-0.628494 12:0.0627975 
5 0 1:-0.0155556 2:-0.463909 3:-0.224594 4:-0.26619 5:-0.0677343 6:-0.269601 7:-0.207301 8:-0.257226 9:-0.184351 10:-0.299067 11:-0.0618112 12:-0.406665 
1.697398053847942 0 1:-0.00814815 2:-0.602672 3:-0.151835 4:-0.501122 5:0.0776065 6:-0.591388 7:-0.123666 8:-0.48856 9:-0.0286383 10:-0.61666 11:0.00314114 12:-0.628077 
5 0 1:-0.428148 2:-0.327587 3:-0.530351 4:-0.298127 5:-0.558822 6:-0.164725 7:-0.5797 8:-0.178703 9:-0.506087 10:-0.290796 11:-0.570889 12:-0.20946 
5 0 1:-0.206815 2:-0.770021 3:-0.273866 4:-0.807024 5:-0.310371 6:-0.666112 7:-0.433193 8:-0.539215 9:-0.356527 10:-0.661561 11:-0.353884 12:-0.660691 
5 0 1:-0.0288889 2:-0.59118 3:-0.18597 4:-0.475134 5:-0.122251 6:-0.393133 7:-0.18731 8:-0.427926 9:-0.141805 10:-0.503903 11:-0.20279 12:-0.406867 
5 0 1:0.249481 2:-0.452848 3:0.182212 4:-0.390075 5:0.24686 6:-0.227348 7:-0.018591 8:-0.156388 9:0.0843551 10:-0.275689 11:0.163925 12:-0.321888 
0 4.144588315702844 1:0.0885926 2:-0.66602 3:0.150373 4:-0.801388 5:0.403389 6:-0.887359 7:-0.00912647 8:-0.57198 9:0.108271 10:-0.726041 11:0.110685 12:-0.694622 
0 5 1:-0.747407 2:-0.0242046 3:-0.724829 4:-0.137191 5:-0.744858 6:-0.0420007 7:-0.666618 8:-0.141418 9:-0.734154 10:-0.0981137 11:-0.699516 12:-0.14018 
5 0 1:-0.369333 2:-0.0904259 3:-0.493293 4:0.0248917 5:-0.386936 6:0.0348409 7:-0.524265 8:0.0781471 9:-0.505221 10:0.0378529 11:-0.401693 12:-0.0595564 
5 0 1:-0.735111 2:-0.238239 3:-0.86492 4:-0.188854 5:-0.863983 6:-0.157061 7:-0.831764 8:-0.151398 9:-0.814306 10:-0.21163 11:-0.758292 12:-0.286033 
5 0 1:-0.263259 2:-0.28004 3:-0.341928 4:-0.251474 5:-0.21121 6:-0.250542 7:-0.333044 8:-0.217682 9:-0.295438 10:-0.285479 11:-0.341639 12:-0.208549 
0 5 1:-0.780296 2:-0.152769 3:-0.76053 4:-0.281636 5:-0.870016 6:-0.108657 7:-0.772466 8:-0.18953 9:-0.871669 10:-0.111364 11:-0.782782 12:-0.223235 
5 5 1:-0.636889 2:0.397831 3:-0.73579 4:0.504149 5:-0.677618 6:0.577573 7:-0.687382 8:0.443838 9:-0.666046 10:0.409377 11:-0.660118 12:0.427935 
5 0 1:-0.714667 2:0.0878403 3:-0.892792 4:0.232479 5:-0.802336 6:0.207382 7:-0.773528 8:0.13511 9:-0.740826 10:0.0692493 11:-0.711867 12:0.0394004 
0 5 1:-0.693778 2:-0.426129 3:-0.631192 4:-0.633252 5:-0.48851 6:-0.749307 7:-0.672799 8:-0.484606 9:-0.677397 10:-0.522049 11:-0.601661 12:-0.627165 
2.118445440101537 0 1:0.165185 2:-0.58802 3:0.25612 4:-0.742212 5:0.297757 6:-0.568094 7:0.055966 8:-0.475379 9:0.086868 10:-0.527198 11:0.121333 12:-0.525372 
5 0 1:-0.738963 2:-0.456439 3:-0.729213 4:-0.610082 5:-0.875062 6:-0.427923 7:-0.762229 8:-0.467658 9:-0.820892 10:-0.443811 11:-0.732631 12:-0.563658 
5 0 1:-0.243852 2:-0.292107 3:-0.34412 4:-0.231436 5:-0.262107 6:-0.180961 7:-0.325607 8:-0.215328 9:-0.367098 10:-0.186395 11:-0.230261 12:-0.320571 
5 0 1:-0.640889 2:-0.420527 3:-0.71272 4:-0.455513 5:-0.64109 6:-0.494681 7:-0.759332 8:-0.315225 9:-0.674537 10:-0.45242 11:-0.65735 12:-0.48658 
0 5 1:-0.387852 2:0.340803 3:-0.480662 4:0.4552 5:-0.247957 6:0.38567 7:-0.26573 8:0.18567 9:-0.399766 10:0.342364 11:-0.276154 12:0.24491 
5 5 1:-0.589926 2:0.156073 3:-0.717522 4:0.268277 5:-0.622991 6:0.279685 7:-0.619779 8:0.172018 9:-0.581387 10:0.114065 11:-0.635628 12:0.190013 
5 0.1662542944798458 1:-0.398519 2:0.147598 3:-0.377629 4:0.10682 5:-0.478089 6:0.389704 7:-0.427785 8:0.166463 9:-0.375504 10:0.0960881 11:-0.481552 12:0.247848 
5 5 1:-0.861037 2:0.692882 3:-0.854898 4:0.687418 5:-0.892283 6:0.85267 7:-0.781737 8:0.594671 9:-0.770461 10:0.574377 11:-0.873077 12:0.704953 
0 5 1:-0.660741 2:0.180493 3:-0.511979 4:-0.0411731 5:-0.333845 6:-0.10775 7:-0.507074 8:-0.0180774 9:-0.542134 10:0.00308056 11:-0.500825 12:-0.0312975 
5 0 1:-0.673185 2:-0.120735 3:-0.671277 4:-0.208162 5:-0.781605 6:-0.00963041 7:-0.813414 8:0.0183599 9:-0.747498 10:-0.0860446 11:-0.681627 12:-0.165299 
5 5 1:0.541926 2:-0.71486 3:0.521478 4:-0.710066 5:0.904349 6:-0.83835 7:0.448935 8:-0.61256 9:0.554265 10:-0.739292 11:0.555875 12:-0.678416 
0 5 1:-0.480296 2:0.149896 3:-0.533796 4:0.186244 5:-0.410519 6:0.19881 7:-0.482544 8:0.139911 9:-0.48893 10:0.13027 11:-0.477293 12:0.144333 
0 5 1:-0.126519 2:0.103498 3:0.0266715 4:-0.0652821 5:-0.0166182 6:0.214037 7:-0.120769 8:0.0918934 9:-0.0782895 10:0.042326 11:-0.122291 12:0.139167 
5 5 1:-0.791852 2:0.547511 3:-0.803643 4:0.554245 5:-0.813964 6:0.687188 7:-0.783959 8:0.534413 9:-0.698453 10:0.419505 11:-0.817814 12:0.570647 
0 5 1:-0.545333 2:0.142283 3:-0.4673 4:0.0173772 5:-0.465036 6:0.153935 7:-0.472403 8:0.0411449 9:-0.479572 10:0.0373465 11:-0.501784 12:0.0823458 
5 4.177530610087175 1:-0.715407 2:-0.547511 3:-0.733493 4:-0.679382 5:-0.826139 6:-0.562144 7:-0.820368 8:-0.465681 9:-0.730774 10:-0.61666 11:-0.760848 12:-0.607212 
5 0 1:-0.565481 2:-0.0976083 3:-0.682343 4:-0.0333455 5:-0.626721 6:-0.00398326 7:-0.672606 8:0.00291875 9:-0.621594 10:-0.0843567 11:-0.592823 12:-0.112529 
0 5 1:-0.641185 2:-0.0907132 3:-0.651861 4:-0.155978 5:-0.665661 6:-0.0535975 7:-0.525134 8:-0.247246 9:-0.636758 10:-0.144195 11:-0.67247 12:-0.101995 
5 0 1:0.00192593 2:-0.361632 3:-0.0141448 4:-0.379638 5:0.112708 6:-0.319014 7:-0.18335 8:-0.160437 9:-0.13418 10:-0.232983 11:0.0462652 12:-0.397346 
5 5 1:-0.339704 2:0.283919 3:-0.410721 4:0.378699 5:-0.226677 6:0.371552 7:-0.388672 8:0.333208 9:-0.354707 10:0.297042 11:-0.40361 12:0.387015 
5 0 1:-0.693481 2:-0.0904259 3:-0.75458 4:-0.100454 5:-0.850162 6:0.0742702 7:-0.791009 8:0.00291875 9:-0.790564 10:-0.0310166 11:-0.737635 12:-0.0964246 
0 5 1:-0.713185 2:0.13194 3:-0.718774 4:0.0835464 5:-0.621894 6:0.0764887 7:-0.713072 8:0.120045 9:-0.650015 10:0.0213951 11:-0.634137 12:0.0113441 
0 5 1:-0.684444 2:0.375997 3:-0.637351 4:0.29844 5:-0.559919 6:0.346039 7:-0.599981 8:0.263723 9:-0.500802 10:0.136262 11:-0.512644 12:0.17006 
0 5 1:-0.847556 2:0.0558069 3:-0.894149 4:0.0244742 5:-0.78336 6:-0.0481521 7:-0.806364 8:-0.0161943 9:-0.927993 10:0.0921214 11:-0.770111 12:-0.0991593 
5 0 1:-0.687556 2:-0.001221 3:-0.910121 4:0.192715 5:-0.922448 6:0.270005 7:-0.915496 8:0.242068 9:-0.875915 10:0.166646 11:-0.786083 12:0.0645194 
5 0 1:-0.61363 2:0.144725 3:-0.756981 4:0.262746 5:-0.767784 6:0.381838 7:-0.708919 8:0.230958 9:-0.609896 10:0.0977761 11:-0.692488 12:0.2047 
5 0 1:0.0425185 2:-0.54076 3:-0.0157106 4:-0.526901 5:0.0441507 6:-0.410276 7:-0.0963349 8:-0.398173 9:0.000736537 10:-0.525003 11:0.101209 12:-0.606199 
5 5 1:-0.832444 2:-0.409179 3:-0.833603 4:-0.557794 5:-0.864422 6:-0.514546 7:-0.904776 8:-0.362866 9:-0.734674 10:-0.606617 11:-0.778843 12:-0.580067 
5 5 1:-0.440296 2:0.251454 3:-0.571063 4:0.391118 5:-0.402622 6:0.373569 7:-0.483027 8:0.28679 9:-0.481825 10:0.273073 11:-0.499335 12:0.332928 
5 5 1:-0.764 2:0.0481936 3:-0.8811 4:0.111308 5:-0.769319 6:0.051379 7:-0.866049 8:0.143678 9:-0.750791 10:-0.0167532 11:-0.836767 12:0.0735339 
5 5 1:-0.549185 2:-0.0691661 3:-0.695809 4:0.0381464 5:-0.637251 6:0.0717491 7:-0.689314 8:0.072592 9:-0.722456 10:0.0855383 11:-0.696215 12:0.0658361 
5 0 1:0.536 2:-0.621921 3:0.658855 4:-0.769556 5:0.628366 6:-0.44426 7:0.459365 8:-0.544111 9:0.429747 10:-0.503059 11:0.583666 12:-0.615213 
0 5 1:0.532296 2:-0.607556 3:0.66136 4:-0.768512 5:0.883398 6:-0.710684 7:0.649041 8:-0.752754 9:0.672804 10:-0.774739 11:0.716659 12:-0.757824 
0 5 1:-0.233333 2:0.143863 3:-0.224072 4:0.133017 5:-0.0104755 6:0.110876 7:-0.229997 8:0.126636 9:-0.214765 10:0.108748 11:-0.142203 12:0.0664438 
5 0 1:-0.148148 2:0.0731882 3:-0.29798 4:0.257423 5:-0.173367 6:0.326678 7:-0.234922 8:0.169193 9:-0.193189 10:0.118369 11:-0.0676676 12:0.018738 
5 5 1:-0.639852 2:0.21741 3:-0.727021 4:0.29176 5:-0.669281 6:0.343518 7:-0.586363 8:0.147632 9:-0.561544 10:0.0976917 11:-0.688442 12:0.255444 
0 5 1:-0.388444 2:-0.305609 3:-0.155593 4:-0.65496 5:-0.178413 6:-0.490344 7:-0.441016 8:-0.264099 9:-0.34067 10:-0.405832 11:-0.307778 12:-0.431379 
5 5 1:-0.554519 2:-0.155211 3:-0.65374 4:-0.122893 5:-0.444524 6:-0.255382 7:-0.626539 8:-0.10065 9:-0.65842 10:-0.089927 11:-0.635841 12:-0.113846 
5 0 1:0.217778 2:-0.617467 3:0.151313 4:-0.579502 5:0.386058 6:-0.623153 7:0.102323 8:-0.503625 9:0.212079 10:-0.637338 11:0.171485 12:-0.547655 
5 0 1:-0.751704 2:-0.074912 3:-0.813351 4:-0.0858425 5:-0.873965 6:0.0388746 7:-0.818243 8:-0.0175125 9:-0.771934 10:-0.10495 11:-0.740404 12:-0.147372 
0 5 1:-0.168741 2:0.15047 3:-0.00140926 4:-0.0364765 5:0.104042 6:0.0803207 7:-0.239268 8:0.221825 9:-0.105411 10:0.0660421 11:-0.0864079 12:0.0910564 
5 0 1:-0.348741 2:-0.269267 3:-0.490996 4:-0.171946 5:-0.390556 6:-0.157667 7:-0.408373 8:-0.219 9:-0.45401 10:-0.192725 11:-0.509769 12:-0.118708 
5 0 1:-0.271556 2:-0.589025 3:-0.379508 4:-0.561238 5:-0.284704 6:-0.559421 7:-0.402289 8:-0.462951 9:-0.344049 10:-0.5591 11:-0.292552 12:-0.616023 
5 5 1:-0.654963 2:0.161388 3:-0.79216 4:0.275583 5:-0.699885 6:0.275652 7:-0.767058 8:0.270125 9:-0.685889 10:0.158628 11:-0.64042 12:0.115973 
5 0 1:0.293037 2:-0.737126 3:0.174696 4:-0.655273 5:0.348654 6:-0.631725 7:0.100198 8:-0.536673 9:0.190936 10:-0.654893 11:0.266251 12:-0.69766 
-5 0 1:0.651556 2:-0.596926 3:0.478678 4:-0.465741 5:0.0438216 6:-0.49226 7:0.463325 8:-0.463704 9:-0.071444 10:-0.576318 11:0.46803 12:-0.388433 
-5 5 1:-0.285185 2:0.275013 3:-0.673991 4:0.692637 5:-0.764822 6:0.393233 7:-0.680719 8:0.671876 9:-0.712577 10:0.156433 11:-0.645531 12:0.655221 
-5 0 1:-0.324741 2:0.314085 3:-0.691529 4:-0.286959 5:-0.738935 6:-0.441436 7:-0.69366 8:-0.213068 9:-0.713444 10:-0.474279 11:-0.60017 12:-0.361694 
-5 5 1:0.59363 2:-0.533578 3:0.110601 4:-0.0978448 5:-0.141337 6:0.36772 7:0.0204259 8:-0.010451 9:-0.211733 10:0.031523 11:0.179151 12:-0.135724 
-3.971538944425649 0 1:-0.0459259 2:0.0371328 3:-0.639647 4:-0.127172 5:-0.737728 6:-0.299551 7:-0.673186 8:-0.0370022 9:-0.652528 10:-0.426088 11:-0.495608 12:-0.267497 
-5 0 1:-0.0195556 2:0.055376 3:-0.601545 4:-0.0314669 5:-0.619591 6:-0.343014 7:-0.539717 8:-0.0671312 9:-0.649582 10:-0.359244 11:-0.468456 12:-0.155981 
-5 0 1:0.8 2:-0.761833 3:-0.473981 4:0.493086 5:-0.49553 6:0.685575 7:-0.34724 8:0.328218 9:-0.516139 10:0.296535 11:-0.461215 12:0.488909 
-5 0 1:0.692593 2:-0.646772 3:-0.107052 4:0.119971 5:-0.21132 6:0.269904 7:-0.140084 8:0.141795 9:-0.303583 10:-0.01861 11:-0.0678805 12:0.108579 
-5 0 1:-0.349185 2:0.366947 3:-0.687666 4:-0.478057 5:-0.730818 6:-0.583825 7:-0.695398 8:-0.380943 9:-0.650362 10:-0.653543 11:-0.681201 12:-0.450623 
-5 0 1:-0.0562963 2:0.0694534 3:-0.495694 4:-0.12592 5:-0.749246 6:-0.18449 7:-0.577575 8:0.0114867 9:-0.8098 10:-0.161666 11:-0.669488 12:0.10392 
-5 5 1:-0.674963 2:0.667744 3:-0.85469 4:0.879455 5:-0.836779 6:0.0677154 7:-0.783959 8:0.764429 9:-0.826264 10:-0.0236739 11:-0.837513 12:0.853135 
-5 5 1:-0.246519 2:0.221289 3:-0.67848 4:0.694202 5:-0.684309 6:0.0247567 7:-0.678401 8:0.659731 9:-0.779559 10:0.0249399 11:-0.737422 12:0.752557 
-5 5 1:-0.143111 2:-0.67823 3:-0.727961 4:-0.756301 5:-0.712938 6:-0.853779 7:-0.574002 8:-0.814142 9:-0.639877 10:-0.872051 11:-0.60592 12:-0.845336 
-5 5 1:-0.860741 2:0.866121 3:-0.85375 4:0.868914 5:-1 6:0.69939 7:-0.895601 8:0.887958 9:-0.797582 10:0.28953 11:-0.760315 12:0.756001 
-5 0 1:0.669037 2:-0.615744 3:-0.189206 4:0.196472 5:-0.463171 6:0.363183 7:-0.344343 8:0.349967 9:-0.410078 10:0.0144744 11:-0.235905 12:0.273169 
-2.022848874331233 5 1:-0.0515556 2:0.0494865 3:-0.622005 4:0.639096 5:-0.659409 6:0.0649927 7:-0.667294 8:0.666039 9:-0.706339 10:-0.00519053 11:-0.584411 12:0.601641 
-5 5 1:0.0715556 2:-0.0618401 3:-0.603111 4:0.622919 5:-0.719849 6:0.363384 7:-0.548216 8:0.531588 9:-0.629912 10:0.0766764 11:-0.582282 12:0.604477 
-5 5 1:-0.587259 2:0.561732 3:-0.819615 4:0.834055 5:-0.900839 6:0.266273 7:-0.846057 8:0.838339 9:-0.861704 10:0.124193 11:-0.766597 12:0.768459 
-5 0 1:-0.2 2:0.205056 3:-0.671904 4:-0.160048 5:-0.665881 6:-0.421368 7:-0.640736 8:-0.142642 9:-0.606603 10:-0.514875 11:-0.64979 12:-0.159627 
-5 0 1:0.884889 2:-0.862673 3:0.567514 4:-0.838752 5:0.245105 6:-1 7:0.489304 8:-0.726768 9:-0.0420692 10:-0.834409 11:0.640739 12:-0.840474 
-5 4.96796765780006 1:-0.0894815 2:0.0951663 3:-0.589018 4:-0.0686218 5:-0.508583 6:-0.475621 7:-0.607514 8:-0.000470765 9:-0.725402 10:-0.283032 11:-0.625938 12:0.00425403 
-5 5 1:-0.587704 2:0.580837 3:-0.745916 4:-0.00986276 5:-0.814512 6:-0.226542 7:-0.734512 8:0.0249506 9:-0.735193 10:-0.337216 11:-0.667359 12:-0.0790033 
-5 5 1:-0.585037 2:-0.245852 3:-0.848844 4:-0.639931 5:-0.885263 6:-0.689003 7:-0.797093 8:-0.579606 9:-0.840908 10:-0.658269 11:-0.814087 12:-0.640839 
-5 0 1:-0.400593 2:0.38835 3:-0.705204 4:-0.188019 5:-0.761312 6:-0.358443 7:-0.736347 8:-0.0883156 9:-0.752264 10:-0.380175 11:-0.693553 12:-0.170769 
-5 3.616543416524653 1:0.812889 2:-0.784816 3:1 4:-1 5:0.211649 6:-0.593909 7:0.74359 8:-0.711892 9:0.0444955 10:-0.645187 11:1 12:-0.908538 
-5 5 1:0.768741 2:-0.732385 3:-0.0151887 4:0.0134113 5:-0.309384 6:0.529269 7:-0.239075 8:0.25845 9:-0.428448 10:0.34287 11:-0.158281 12:0.208143 
-5 0 1:0.77763 2:-0.746032 3:-0.000678532 4:0.0271878 5:-0.123019 6:-0.0984722 7:-0.0872567 8:0.106111 9:-0.316407 10:-0.143014 11:0.0412607 12:0.015902 
-5 5 1:-0.791111 2:0.790275 3:-0.811055 4:-0.376402 5:-0.795426 6:-0.546211 7:-0.868946 8:-0.217682 9:-0.867683 10:-0.430645 11:-0.808231 12:-0.351869 
-5 5 1:0.350667 2:-0.326295 3:-0.525341 4:0.546731 5:-0.514178 6:0.692432 7:-0.399778 8:0.375953 9:-0.594125 10:0.415369 11:-0.273279 12:0.271853 
-5 5 1:-0.767407 2:0.744452 3:-0.953025 4:0.157543 5:-0.923216 6:-0.157364 7:-0.939543 8:0.189907 9:-0.920627 10:-0.167068 11:-0.894373 12:0.105237 
-5 5 1:0.779852 2:-0.746032 3:0.945509 4:-0.944372 5:0.205177 6:-0.18207 7:0.726785 8:-0.690801 9:-0.000476582 10:-0.337047 11:0.98307 12:-0.901752 
-5 0 1:-0.0653333 2:0.0744811 3:-0.632549 4:0.654751 5:-0.677727 6:0.0885897 7:-0.649235 8:0.645325 9:-0.60565 10:-0.119045 11:-0.551935 12:0.563962 
-5 0 1:0.772741 2:-0.738275 3:0.150269 4:-0.115587 5:-0.000164537 6:-0.0792114 7:0.224685 8:-0.218059 9:-0.0769897 10:-0.318479 11:0.433317 12:-0.383977 
-5 0 1:-0.704444 2:0.697335 3:-0.896759 4:-0.255231 5:-0.896781 6:-0.422982 7:-0.76812 8:-0.317578 9:-0.816039 10:-0.478499 11:-0.760528 12:-0.386104 
-5 5 1:0.737481 2:-0.694893 3:-0.0639386 4:0.081146 5:-0.173367 6:0.392326 7:-0.202666 8:0.221636 9:-0.360166 10:0.243533 11:-0.0864079 12:0.133698 
-5 0 1:0.78237 2:-0.75149 3:-0.436192 4:0.470229 5:-0.486426 6:0.557808 7:-0.425853 8:0.434422 9:-0.485118 10:0.172469 11:-0.203429 12:0.218576 
-5 5 1:-0.818074 2:0.818143 3:-0.808445 4:-0.215467 5:-0.814951 6:-0.404629 7:-0.924188 8:-0.00564919 9:-0.934058 10:-0.25518 11:-0.8258 12:-0.168844 
-5 5 1:-0.760889 2:0.739999 3:-0.862936 4:-0.432135 5:-0.860034 6:-0.568497 7:-0.872712 8:-0.320685 9:-0.844981 10:-0.52821 11:-0.8636 12:-0.395928 
-5 5 1:-0.357333 2:-0.544495 3:-0.686727 4:-0.836143 5:-0.854111 6:-0.730449 7:-0.681781 8:-0.718106 9:-0.747151 10:-0.767988 11:-0.67428 12:-0.805632 
-5 5 1:-0.477185 2:0.460748 3:-0.840493 4:-0.109325 5:-0.817035 6:-0.354308 7:-0.820078 8:-0.0615761 9:-0.805988 10:-0.36473 11:-0.818559 12:-0.109997 
-5 5 1:-0.676296 2:0.674208 3:-0.743097 4:-0.333925 5:-0.794987 6:-0.45868 7:-0.875416 8:-0.102156 9:-0.854512 10:-0.374098 11:-0.723899 12:-0.327459 
-5 5 1:-0.650222 2:0.64433 3:-0.846652 4:0.0678912 5:-0.77612 6:-0.292492 7:-0.840649 8:0.114114 9:-0.786924 10:-0.301009 11:-0.80493 12:0.0330193 
-5 0 1:0.731111 2:-0.685413 3:-0.416045 4:0.445494 5:-0.53107 6:0.724197 7:-0.43696 8:0.437906 9:-0.420216 10:0.173988 11:-0.360486 12:0.395118 
-5 5 1:0.770222 2:-0.728363 3:0.688606 4:-0.681991 5:0.15099 6:-0.0529925 7:0.507847 8:-0.484983 9:-0.0627789 10:-0.237878 11:0.74051 12:-0.668591 
-5 5 1:-0.130222 2:0.137686 3:-0.587452 4:0.597036 5:-0.6627 6:0.374477 7:-0.702545 8:0.704548 9:-0.692041 10:0.19897 11:-0.599531 12:0.618151 
-5 2.158173597273264 1:-0.783852 2:0.782374 3:-0.878908 4:-0.439127 5:-0.944277 6:-0.493168 7:-0.761843 8:-0.47086 9:-0.8124 10:-0.583745 11:-0.794602 12:-0.500051 
-5 0 1:-0.386222 2:0.39108 3:-0.718148 4:-0.129573 5:-0.810892 6:-0.279585 7:-0.70042 8:-0.0925525 9:-0.715957 10:-0.402625 11:-0.586435 12:-0.253013 
-5 0 1:-0.30163 2:-0.0953099 3:-0.733285 4:-0.667171 5:-0.806505 6:-0.68618 7:-0.719542 8:-0.56972 9:-0.734067 10:-0.70933 11:-0.715807 12:-0.643472 
-5 5 1:-0.819111 2:0.817281 3:-0.964403 4:-0.324219 5:-0.898755 6:-0.5329 7:-0.864986 8:-0.339799 9:-0.798882 10:-0.593788 11:-0.871373 12:-0.404031 
-5 5 1:-0.51763 2:0.509876 3:-0.736729 4:-0.314825 5:-0.785225 6:-0.446478 7:-0.745714 8:-0.224838 9:-0.821412 10:-0.394945 11:-0.739126 12:-0.280664 
-5 4.042081106465993 1:-0.428 2:0.427422 3:-0.659481 4:-0.0802066 5:-0.851368 6:-0.160288 7:-0.667294 8:-0.0226909 9:-0.768208 10:-0.283116 11:-0.695682 12:-0.0126608 
-5 5 1:-0.497185 2:-0.530561 3:-0.737565 4:-0.827271 5:-0.847749 6:-0.772702 7:-0.730455 8:-0.707372 9:-0.708851 10:-0.848166 11:-0.790981 12:-0.717512 
-5 0 1:0.679259 2:-0.635136 3:-0.157263 4:0.184992 5:-0.278232 6:0.491958 7:-0.177652 8:0.188777 9:-0.292405 10:0.0354897 11:0.0302934 12:0.00607718 
-5 0 1:-0.237037 2:0.244128 3:-0.832037 4:0.883943 5:-0.760544 6:0.109061 7:-0.631465 8:0.622352 9:-0.730081 10:-0.0313542 11:-0.50402 12:0.510281 
-5 5 1:-0.474667 2:0.466494 3:-0.737565 4:-0.291134 5:-0.771184 6:-0.449302 7:-0.678497 8:-0.287261 9:-0.775833 10:-0.431827 11:-0.756588 12:-0.242479 
-5 0 1:-0.197037 2:0.21583 3:-0.584008 4:-0.249282 5:-0.699227 6:-0.370342 7:-0.620745 8:-0.147632 9:-0.718643 10:-0.375955 11:-0.588032 12:-0.209663 
-5 0 1:-0.299259 2:0.302162 3:-0.729631 4:-0.110578 5:-0.75835 6:-0.333938 7:-0.750157 8:-0.0305056 9:-0.707638 10:-0.408364 11:-0.51701 12:-0.323407 
-5 0 1:0.794667 2:-0.759678 3:0.821494 4:-0.786359 5:0.249822 6:-0.870216 7:0.804819 8:-0.785708 9:-0.0668515 10:-0.698865 11:0.960603 12:-0.865694 
-5 5 1:-0.428296 2:0.434461 3:-0.775562 4:0.161927 5:-0.766467 6:-0.19397 7:-0.68661 8:0.100179 9:-0.692214 10:-0.321602 11:-0.690891 12:0.0833587 
-0 5 1:-0.189926 2:0.18552 3:-0.668146 4:0.5006 5:-0.726649 6:-0.0644885 7:-0.714617 8:0.541851 9:-0.704259 10:-0.16673 11:-0.657456 12:0.496607 
-5 0 1:-0.452741 2:0.451555 3:-0.841223 4:0.0150811 5:-0.805079 6:-0.283417 7:-0.687962 8:-0.103568 9:-0.776006 10:-0.329873 11:-0.672576 12:-0.154766 
-5 0 1:0.782519 2:-0.74086 3:0.140143 4:-0.122371 5:-0.131465 6:0.198709 7:-0.00593945 8:0.0304114 9:-0.176552 10:-0.148078 11:0.147421 12:-0.0895371 
-5 5 1:-0.724296 2:0.745601 3:-0.736834 4:-0.224025 5:-0.843032 6:-0.319518 7:-0.759332 8:-0.125129 9:-0.826697 10:-0.33595 11:-0.803226 12:-0.11972 
-5 5 1:-0.378667 2:-0.361345 3:-0.697166 4:-0.781454 5:-0.695717 6:-0.864065 7:-0.731035 8:-0.621222 9:-0.731814 10:-0.760223 11:-0.637438 12:-0.803201 
-5 5 1:-0.52963 2:0.531566 3:-0.753745 4:-0.124876 5:-0.814951 6:-0.300257 7:-0.763774 8:-0.0505602 9:-0.736407 10:-0.397898 11:-0.749667 12:-0.105135 
-5 5 1:-0.403111 2:0.390505 3:-0.761157 4:0.776862 5:-0.855646 6:0.0897998 7:-0.674344 8:0.654082 9:-0.835796 10:-0.0071317 11:-0.77075 12:0.78507 
-5 0 1:-0.157778 2:0.172448 3:-0.637142 4:-0.0631947 5:-0.698788 6:-0.299551 7:-0.676566 8:0.0241032 9:-0.683723 10:-0.357049 11:-0.616036 12:-0.0650258 
-5 5 1:-0.396741 2:0.396107 3:-0.666371 4:0.676147 5:-0.788406 6:0.962184 7:-0.703414 8:0.691837 9:-0.804081 10:0.532346 11:-0.624554 12:0.629495 
-5 0 1:-0.0346667 2:0.0525031 3:-0.686309 4:0.115065 5:-0.618494 6:-0.317501 7:-0.535951 8:-0.0218435 9:-0.619601 10:-0.374351 11:-0.525102 12:-0.0455789 
-5 0 1:-0.041037 2:0.0507793 3:-0.582024 4:-0.0867818 5:-0.70153 6:-0.271013 7:-0.647883 8:0.0267395 9:-0.684329 10:-0.334937 11:-0.568227 12:-0.0809278 
-5 0 1:0.725481 2:-0.685556 3:0.0795971 4:-0.0591244 5:-0.123896 6:-0.216962 7:0.0474673 8:-0.0389794 9:-0.314934 10:-0.226569 11:0.0800192 12:-0.0213714 
-3.212193087886894 -2.267552724546661 1:-0.841926 2:-0.10278 3:-0.521583 4:-0.477326 5:-0.423244 6:-0.477033 7:-0.926409 8:0.914791 9:-0.852953 10:-0.858716 11:-0.891498 12:-0.857389 
-5 -5 1:-0.987556 2:0.990807 3:-0.564382 4:0.268799 5:-0.345034 6:0.109867 7:-0.922835 8:0.915733 9:-0.875222 10:0.854328 11:-0.843263 12:0.84098 
-3.712728390584714 -0 1:-0.624444 2:0.638584 3:-0.333786 4:0.349684 5:-0.159217 6:0.311451 7:0.802115 8:-0.776951 9:-0.863524 10:0.838629 11:-0.851994 12:0.851818 
-5 -0 1:0.0682963 2:-0.0444588 3:-0.0161282 4:0.0599593 5:0.195634 6:0.066707 7:1 8:-1 9:0.819245 10:-0.790775 11:-0.85029 12:0.848982 
-5 -5 1:0.302963 2:-0.299002 3:0.164779 4:-0.148881 5:0.170625 6:0.0289921 7:0.662948 8:-0.616138 9:0.879295 10:-0.858294 11:-0.787787 12:0.781424 
-5 -5 1:-0.933333 2:-0.65812 3:-0.857508 4:-0.680113 5:-0.922119 6:-0.527555 7:-0.875803 8:-0.768948 9:-0.808067 10:-0.912732 11:-0.813555 12:-0.94723 
-5 -5 1:-0.82 2:-0.723335 3:-0.886737 4:-0.535146 5:-0.900071 6:-0.436394 7:-0.901106 8:-0.741832 9:-0.931459 10:-0.769422 11:-0.879146 12:-0.874506 
-5 -0 1:-0.87363 2:0.206493 3:-0.867008 4:0.0826071 5:-0.74058 6:0.0185045 7:-0.869429 8:0.853027 9:-0.929119 10:0.917627 11:-0.891711 12:-0.857895 
-5 -5 1:0.456148 2:-0.433886 3:0.319693 4:-0.305015 5:0.473482 6:-0.293602 7:0.733836 8:-0.701817 9:0.880768 10:-0.864287 11:-0.817282 12:0.809683 
-5 -5 1:-0.781926 2:-0.080227 3:-0.518764 4:-0.406356 5:-0.375309 6:-0.459285 7:-0.911439 8:0.901798 9:-0.882761 10:-0.825801 11:-0.836767 12:-0.920997 
-5 -0 1:-0.0911111 2:0.107089 3:-0.0172765 4:-0.0923133 5:0.20441 6:-0.210709 7:0.809069 8:-0.790792 9:0.84706 10:-0.826054 11:-0.913539 12:0.917857 
-5 -0 1:-0.638963 2:0.611147 3:-0.441829 4:0.449564 5:-0.458345 6:0.633843 7:0.745908 8:-0.71321 9:-0.919847 10:0.900494 11:-0.98126 12:0.996151 
-5 -5 1:-0.803111 2:-0.04805 3:-0.700402 4:-0.207744 5:-0.587232 6:-0.238542 7:-0.881887 8:0.86442 9:-0.853386 10:-0.860995 11:-0.870521 12:-0.884027 
-5 -0 1:-0.500148 2:0.432881 3:-0.343598 4:-0.0074623 5:-0.212198 6:-0.0498664 7:0.809551 8:-0.784766 9:-0.777393 10:0.744187 11:-0.848799 12:0.84412 
-1.439456428456235 -5 1:0.178074 2:-0.207642 3:0.0227047 4:-0.0445129 5:0.205177 6:-0.123078 7:0.834178 8:-0.812635 9:-0.852519 10:0.828248 11:-0.840494 12:0.838853 
-5 -0 1:-0.756741 2:0.599512 3:-0.649355 4:0.238428 5:-0.55937 6:0.220693 7:-0.881694 8:0.861783 9:-0.880768 10:0.856944 11:-0.832721 12:-0.927276 
-5 -5 1:-0.312 2:0.306328 3:-0.159977 4:0.167876 5:-0.195744 6:0.425503 7:0.786663 8:-0.761981 9:-0.771414 10:0.733722 11:-0.885854 12:0.886053 
-1.490290538125017 -0 1:-0.88963 2:0.522948 3:-0.635263 4:0.0565152 5:-0.636593 6:0.145868 7:-0.758463 8:0.726485 9:-0.852953 10:0.831371 11:-0.839323 12:-0.917148 
-5 -5 1:-0.836 2:-0.770883 3:-0.609374 4:-0.853781 5:-0.43158 6:-0.932032 7:-0.945434 8:-0.691084 9:-0.865604 10:-0.843356 11:-0.925465 12:-0.820723 
-5 -5 1:-0.973185 2:0.978166 3:-0.581085 4:0.37515 5:-0.512093 6:0.37125 7:-0.968709 8:0.968176 9:-0.870283 10:0.845466 11:-0.891391 12:0.8976 
-5 -0 1:-0.988 2:0.348704 3:-0.775354 4:-0.0042269 5:-0.741238 6:0.0422024 7:-0.870491 8:0.850862 9:-0.797063 10:0.767903 11:-0.894266 12:-0.855768 
-5 -4.098509236108111 1:-0.736296 2:0.0550887 3:-0.944674 4:0.17372 5:-0.756156 6:0.00952957 7:-0.912309 8:0.899068 9:-0.79013 10:0.755581 11:-0.876591 12:-0.874202 
-3.633704775217002 -0 1:0.179556 2:-0.173023 3:0.147033 4:-0.279132 5:0.381342 6:-0.389906 7:0.75402 8:-0.722248 9:0.942637 10:-0.92843 11:-0.863387 12:0.863669 
-5 -5 1:-0.914519 2:-0.166846 3:-0.851245 4:-0.229974 5:-0.703176 6:-0.307417 7:-0.959438 8:0.957819 9:-0.935185 10:-0.764358 11:-0.887451 12:-0.864783 
-5 -5 1:-0.871556 2:0.348273 3:-0.962942 4:0.290508 5:-0.938024 6:0.307316 7:-0.95741 8:0.955936 9:-0.820025 10:0.791028 11:-0.82218 12:-0.934772 
-5 -5 1:-0.785481 2:-0.07247 3:-0.843416 4:-0.071231 5:-0.710086 6:-0.134473 7:-0.893187 8:0.878166 9:-0.930159 10:-0.771363 11:-0.885961 12:-0.863162 
-5 -5 1:-0.107111 2:0.105078 3:-0.0964038 4:-0.0782237 5:0.0169473 6:-0.0873796 7:0.731421 8:-0.695226 9:-0.917681 10:0.902097 11:-0.780759 12:0.771093 
-5 -5 1:-0.571704 2:0.471809 3:-0.509265 4:0.162866 5:-0.363901 6:0.0933293 7:0.846733 8:-0.824122 9:-0.956154 10:0.946491 11:-0.829314 12:0.822749 
-5 -5 1:0.0583704 2:-0.0573871 3:0.0745864 4:-0.0900172 5:0.134098 6:-0.0260677 7:0.730938 8:-0.698428 9:0.882327 10:-0.860489 11:-0.854123 12:0.854046 
-5 -5 1:-0.866815 2:-0.0917187 3:-0.720132 4:-0.273391 5:-0.603027 6:-0.308829 7:-0.951808 8:0.945297 9:-0.909969 10:-0.79356 11:-0.860619 12:-0.893649 
-5 -5 1:0.533778 2:-0.518064 3:0.312073 4:-0.517403 5:0.487413 6:-0.551253 7:0.738278 8:-0.701158 9:0.860231 10:-0.833143 11:-0.824203 12:0.824876 
-5 -0 1:-0.818815 2:-0.655821 3:-0.711154 4:-0.64515 5:-0.515933 6:-0.750819 7:-0.750157 8:0.71481 9:-0.894459 10:-0.810356 11:-0.88447 12:-0.866302 
-5 -5 1:-0.386222 2:0.384041 3:-0.292343 4:0.31566 5:-0.140898 6:0.311753 7:0.684388 8:-0.6393 9:-0.912482 10:0.897877 11:-0.783208 12:0.774131 
-5 -0 1:-0.832296 2:0.25246 3:-0.760739 4:0.0457653 5:-0.639884 6:-0.0120506 7:-0.911922 8:0.901328 9:-0.825138 10:0.796599 11:-0.832721 12:-0.923225 
-5 -0 1:-0.922222 2:0.349278 3:-0.793517 4:0.0770756 5:-0.742116 6:0.0994807 7:-0.837172 8:0.815837 9:-0.888566 10:0.864371 11:-0.799074 12:-0.963436 
-0 -1.639963060423152 1:-0.249333 2:-0.615456 3:-0.311029 4:-0.600584 5:-0.171612 6:-0.630616 7:0.731228 8:-0.695791 9:-0.876522 10:-0.833397 11:-0.85029 12:-0.90317 
-5 -5 1:-0.909481 2:0.888961 3:-0.827548 4:0.519699 5:-0.613887 6:0.349065 7:-0.871071 8:0.855852 9:-0.94489 10:0.93746 11:-0.866475 12:0.865796 
-5 -5 1:-0.779111 2:-0.123752 3:-0.896446 4:-0.0312582 5:-0.690013 6:-0.182978 7:-0.875513 8:0.860559 9:-0.923054 10:-0.779888 11:-0.879891 12:-0.871873 
-5 -0 1:-0.496 2:0.510019 3:-0.383266 4:0.426395 5:-0.198157 6:0.332123 7:0.649911 8:-0.60145 9:-0.935445 10:0.917458 11:-0.919821 12:0.92282 
-5 -5 1:-0.810519 2:-0.613733 3:-0.76053 4:-0.574493 5:-0.629682 6:-0.624162 7:-0.851659 8:0.833914 9:-0.802002 10:-0.920159 11:-0.787254 12:-0.978122 
-5 -5 1:-0.89037 2:0.808087 3:-0.712302 4:0.353546 5:-0.710196 6:0.415419 7:-0.949587 8:0.944544 9:-0.968632 10:0.96354 11:-0.773199 12:0.763598 
-5 -5 1:-0.883407 2:-0.0898513 3:-0.799154 4:-0.196577 5:-0.552021 6:-0.381738 7:-0.987155 8:0.989361 9:-0.852953 10:-0.860826 11:-0.803546 12:-0.95827 
-5 -5 1:-0.750222 2:-0.174029 3:-0.488595 4:-0.488493 5:-0.450337 6:-0.415923 7:-0.930851 8:0.920817 9:-0.83233 10:-0.883698 11:-0.856998 12:-0.895473 
-5 -5 1:-0.866519 2:-0.66128 3:-0.606973 4:-0.810572 5:-0.557506 6:-0.745878 7:-0.828674 8:-0.825158 9:-0.841515 10:-0.874077 11:-0.890752 12:-0.857794 
-5 -5 1:-1 2:1 3:-1 4:1 5:-0.740361 6:0.745374 7:-0.905452 8:0.892854 9:-0.854079 10:0.832721 11:-0.959112 12:0.970728 
-0 -2.464349280118006 1:-0.33763 2:0.328306 3:-0.283157 4:0.0821896 5:-0.0974606 6:-0.01437 7:0.7433 8:-0.710479 9:-0.861358 10:0.838883 11:-0.882979 12:0.885344 
-5 -3.444559287651219 1:0.086963 2:-0.070459 3:0.0235399 4:0.00944529 5:0.229858 6:-0.0519841 7:0.655222 8:-0.606817 9:0.834756 10:-0.807149 11:-0.976468 12:0.993518 
-5 -0 1:0.150963 2:-0.119874 3:0.176784 4:-0.203256 5:0.292382 6:-0.190339 7:0.825583 8:-0.806892 9:0.750531 10:-0.713381 11:-0.828249 12:0.825484 
-5 -5 1:-0.862815 2:-0.49508 3:-0.914087 4:-0.35939 5:-0.706686 6:-0.502345 7:-0.880438 8:0.862442 9:-0.855552 10:-0.85686 11:-0.798541 12:-0.966677 
-5 -5 1:-0.568444 2:0.534008 3:-0.416149 4:0.0961749 5:-0.257939 6:0.0126557 7:0.725144 8:-0.693532 9:-0.883974 10:0.864709 11:-0.808231 12:0.805632 
-5 -5 1:-0.82563 2:-0.101487 3:-0.889973 4:-0.0780149 5:-0.916415 6:0.00388242 7:-0.916172 8:0.908012 9:-0.877908 10:-0.830865 11:-0.852846 12:-0.902157 
-5 -0 1:-0.982963 2:0.286792 3:-0.890391 4:0.0663257 5:-0.879778 6:0.126405 7:-0.946304 8:0.942284 9:-0.892119 10:0.874161 11:-0.868818 12:-0.884128 
-5 -5 1:-0.927852 2:-0.0140056 3:-0.970249 4:-0.00683609 5:-0.954807 6:0.0230424 7:-0.84345 8:0.821109 9:-0.919414 10:-0.782504 11:-0.874567 12:-0.876228 
-5 -5 1:-0.943407 2:0.670761 3:-0.779007 4:0.262433 5:-0.86146 6:0.411385 7:-0.802694 8:0.771302 9:-0.818465 10:0.789678 11:-0.869776 12:-0.883318 
-5 -5 1:-0.889481 2:0.878474 3:-0.913357 4:0.670824 5:-0.803324 6:0.59522 7:-0.97151 8:0.969306 9:-0.919674 10:0.904798 11:-0.77863 12:0.768459 
-5 -0.86983218921682 1:-0.781037 2:0.512749 3:-0.730257 4:0.250848 5:-0.654363 6:0.236525 7:-0.912405 8:0.900574 9:-0.876782 10:0.860489 11:-0.824203 12:-0.936899 
-5 -5 1:-0.88 2:0.648352 3:-0.848426 4:0.385169 5:-0.714254 6:0.298039 7:-0.986383 8:0.985406 9:-0.852086 10:0.830696 11:-0.805249 12:-0.956852 
-5 -5 1:0.15437 2:-0.184084 3:0.104755 4:-0.440902 5:0.212417 6:-0.419251 7:0.786566 8:-0.757085 9:0.847234 10:-0.823944 11:-0.811106 12:0.804517 
