svm_type c_svc
kernel_type rbf
gamma 5
nr_class 2
total_sv 359
rho -0.161705
label 1 0
nr_sv 191 168
SV
0.1387448918956632 1:-0.170443 2:0.573405 3:-0.18259 4:0.57286 
3 1:-1 2:-0.688314 3:0.595954 4:0.416735 
3 1:-0.89062 2:-0.819471 3:0.773802 4:-0.78854 
3 1:-0.867871 2:-0.816313 3:0.609679 4:-0.00541841 
3 1:-0.860513 2:-0.813079 3:0.246757 4:0.28727 
3 1:-0.808973 2:-0.804622 3:-0.488412 4:0.475554 
3 1:-0.867031 2:-0.827811 3:-0.243314 4:0.466283 
3 1:-0.852969 2:-0.925558 3:-0.533078 4:0.160777 
0.004441782888133391 1:-0.0997004 2:0.827037 3:-0.172158 4:0.652457 
3 1:-0.873281 2:-0.684933 3:0.172935 4:-0.287781 
3 1:-0.838571 2:-0.778928 3:-0.510622 4:0.712843 
3 1:-0.834923 2:-0.838921 3:0.388333 4:0.16749 
3 1:-0.269692 2:-0.867601 3:0.351489 4:0.468808 
1.470760537352309 1:-0.85721 2:-0.789795 3:0.693636 4:-0.0103093 
3 1:-0.84888 2:-0.855729 3:-0.250165 4:0.468297 
3 1:-0.865087 2:-0.60996 3:-0.248091 4:-0.212787 
3 1:-0.889372 2:-0.504982 3:-0.284888 4:-0.694462 
3 1:-0.821881 2:-0.85418 3:-0.181866 4:0.745384 
0.4093996850826684 1:-0.489763 2:0.771401 3:0.233331 4:0.774059 
3 1:-0.803067 2:-0.826495 3:0.374269 4:0.682282 
3 1:-0.84374 2:-0.853788 3:0.303812 4:0.385503 
3 1:-0.839238 2:-0.811282 3:-0.35 4:0.0363302 
3 1:-0.866462 2:-0.773087 3:0.490453 4:-0.166819 
1.640805513552234 1:-0.850658 2:-0.808724 3:0.240994 4:0.00545037 
2.384815846152819 1:-0.148608 2:-0.95534 3:0.517377 4:0.832207 
3 1:-0.852472 2:-0.886227 3:-0.139028 4:0.314664 
0.1570214320294008 1:0.134489 2:0.138112 3:-0.198555 4:0.640598 
0.5020693989454202 1:-0.124842 2:-0.713296 3:-0.242143 4:0.664733 
0.03752016325414197 1:-0.232924 2:-0.0480132 3:-0.354797 4:0.829713 
3 1:-0.810968 2:-0.795824 3:0.429208 4:0.554895 
0.3692880822237498 1:-0.488436 2:0.223797 3:-0.349583 4:0.997218 
3 1:-0.870513 2:-0.810125 3:0.692861 4:-0.0276353 
0.07854716496931549 1:0.779835 2:0.323485 3:-0.228528 4:0.808039 
2.769121976943519 1:-0.878112 2:-0.593785 3:0.218517 4:-0.314505 
0.6452568792111997 1:-0.185339 2:-0.829948 3:-0.552072 4:-0.052026 
1.283923688169515 1:-0.871032 2:-0.588025 3:-0.317603 4:-0.23267 
0.9612651219430277 1:-0.0408423 2:-0.854757 3:0.206506 4:0.428626 
3 1:-0.860905 2:-0.847396 3:0.407544 4:0.0877962 
3 1:-0.85837 2:-0.848751 3:0.56098 4:0.205083 
3 1:-0.85428 2:-0.878335 3:0.881677 4:0.774187 
3 1:-0.828613 2:-0.879202 3:0.308711 4:0.0137298 
3 1:-0.857802 2:-0.810429 3:0.362712 4:0.223335 
3 1:-0.839057 2:-0.864319 3:-0.247271 4:0.159338 
2.75631811221104 1:-0.835395 2:-0.803571 3:-0.332481 4:0.736083 
0.2792646279807265 1:-0.0232614 2:-0.141827 3:-0.178931 4:0.983953 
3 1:-0.88859 2:-0.747054 3:-0.382835 4:-0.0593463 
3 1:-0.858805 2:-0.820107 3:0.311427 4:0.358108 
3 1:-0.890372 2:-0.774462 3:0.45221 4:-0.714409 
3 1:-0.872695 2:-0.710051 3:0.275446 4:-0.363574 
0.4088655544880754 1:0.544319 2:-0.105592 3:-0.342715 4:0.977527 
3 1:-0.887686 2:-0.834597 3:-0.169726 4:-0.643795 
3 1:-0.845341 2:-0.815239 3:-0.347901 4:0.239703 
0.388199207117051 1:-0.682208 2:0.191849 3:0.251136 4:0.350692 
0.6210387595789851 1:-0.0936812 2:1 3:-0.172155 4:0.840677 
3 1:-1 2:-0.728659 3:0.627069 4:0.584688 
0.3711377872121204 1:-1 2:-0.59282 3:0.553597 4:-0.221578 
3 1:-0.866797 2:-0.864681 3:0.429122 4:0.669943 
3 1:-0.857761 2:-0.766814 3:0.804692 4:0.993798 
3 1:-0.837522 2:-0.935903 3:0.307203 4:0.406985 
3 1:-0.872649 2:-0.833148 3:0.58086 4:0.593894 
3 1:-0.886602 2:-0.788669 3:0.624082 4:-0.567458 
3 1:-0.863727 2:-0.867031 3:0.137984 4:-0.17529 
3 1:-0.83423 2:-0.827627 3:0.239862 4:0.49208 
3 1:-0.885427 2:-0.585959 3:0.299366 4:-0.532198 
3 1:-0.749655 2:-0.857761 3:0.541949 4:0.979126 
3 1:-0.857184 2:-0.924147 3:0.270948 4:0.590122 
3 1:-0.864757 2:-0.810968 3:0.376374 4:0.429777 
3 1:-0.848817 2:-0.835256 3:-0.23971 4:0.242036 
3 1:-0.862484 2:-0.881127 3:-0.0969174 4:0.0897469 
3 1:-0.867977 2:-0.829565 3:0.369361 4:-0.116023 
3 1:-1 2:-0.737581 3:-0.128751 4:0.356989 
3 1:-1 2:-0.70495 3:0.455248 4:0.497131 
3 1:-0.807999 2:-0.905715 3:0.339652 4:0.12149 
3 1:-0.828447 2:-0.914945 3:0.160196 4:0.000303685 
3 1:-0.845163 2:-0.869847 3:0.359069 4:0.193734 
0.04061140522261518 1:-0.859729 2:-0.759293 3:-0.626807 4:-0.0174698 
3 1:-0.863715 2:-0.790937 3:0.416348 4:0.0409014 
3 1:-0.847717 2:-0.784655 3:0.548825 4:0.783394 
3 1:-0.850813 2:-0.733124 3:0.916726 4:0.828722 
3 1:-0.889822 2:-0.784415 3:0.485646 4:-0.717829 
0.3227147562357791 1:0.229558 2:0.498204 3:-0.364497 4:0.999105 
3 1:-0.892572 2:-0.768949 3:0.49125 4:0.704819 
0.2937838725446782 1:0.653594 2:0.477508 3:-0.200281 4:0.923216 
3 1:-0.877353 2:-0.686431 3:-0.294284 4:-0.272117 
1.323118810960115 1:-0.342765 2:-0.805255 3:0.293666 4:0.529833 
3 1:-0.878505 2:-0.749735 3:0.60638 4:0.324415 
3 1:-0.154711 2:-0.885194 3:0.329415 4:0.687749 
0.8581799122460071 1:-0.852671 2:-0.801656 3:-0.372596 4:0.109246 
2.236328737510453 1:-0.791436 2:-0.85921 3:0.163728 4:0.502533 
0.008256536775224472 1:-0.796095 2:-0.0613869 3:0.180822 4:0.949684 
3 1:-1 2:-0.697305 3:-0.0941356 4:0.413186 
3 1:-0.894503 2:-0.64808 3:0.585249 4:-0.767282 
3 1:-0.850789 2:-0.836596 3:0.519909 4:0.327388 
3 1:-0.845824 2:-0.760274 3:-0.437517 4:-0.0773436 
0.2677538035099745 1:-0.425329 2:0.214706 3:-0.153054 4:0.337521 
0.04597126664695061 1:-0.611069 2:0.209894 3:-0.213441 4:0.423512 
0.8918803177597997 1:-0.171497 2:-0.7699 3:0.507914 4:0.0826182 
0.1033538162421062 1:-0.240081 2:0.376147 3:0.252484 4:0.440359 
2.750955434908028 1:-1 2:-0.681201 3:-0.351003 4:0.85762 
3 1:-0.872075 2:-0.796867 3:0.513738 4:0.773739 
3 1:-0.88837 2:-0.824783 3:0.605205 4:0.166819 
3 1:-0.885297 2:-0.776249 3:0.353132 4:-0.0789738 
0.1306677631693708 1:-0.691183 2:0.220034 3:-0.341584 4:0.798226 
1.453888931365741 1:-0.876074 2:-0.740494 3:0.65037 4:0.303029 
0.4598091652707471 1:-0.32543 2:-0.805506 3:-0.119814 4:0.424663 
3 1:-0.856648 2:-0.848088 3:0.223108 4:0.241941 
3 1:-0.865107 2:-0.799965 3:0.621853 4:-0.0187485 
3 1:-0.869962 2:-0.852819 3:0.362741 4:-0.232574 
0.4750446966436359 1:-0.646255 2:0.374398 3:0.356853 4:0.999489 
3 1:-0.873956 2:-0.785741 3:-0.443962 4:0.870727 
3 1:-0.830306 2:-0.74332 3:0.614724 4:0.692065 
3 1:-0.83595 2:-0.827465 3:0.373554 4:0.214001 
3 1:-0.886046 2:-0.73316 3:0.341812 4:-0.363414 
0.9578104971903244 1:0.217364 2:-0.754318 3:-0.319095 4:-0.35929 
3 1:-0.879762 2:-0.704269 3:0.755257 4:0.673395 
0.02040851680220164 1:-0.0648847 2:-0.350318 3:-0.197604 4:0.439879 
3 1:-0.865518 2:-0.789514 3:-0.62322 4:0.902022 
3 1:-0.869217 2:-0.861554 3:0.527239 4:0.736978 
2.676783421392442 1:-0.884787 2:-0.610196 3:0.393846 4:-0.455382 
3 1:-0.856319 2:-0.856399 3:-0.115102 4:0.265979 
3 1:-1 2:-0.640134 3:0.325481 4:-0.0931671 
3 1:-0.877804 2:-0.751575 3:0.290241 4:-0.131463 
0.2958520629367224 1:-0.0214981 2:0.429976 3:0.236759 4:0.719459 
3 1:-0.883664 2:-0.788848 3:0.623761 4:-0.110717 
0.8789242295733293 1:-0.850005 2:-0.765499 3:0.582989 4:0.893903 
3 1:-0.854975 2:-0.825625 3:0.209694 4:0.348261 
0.1671006505388926 1:0.377613 2:0.601785 3:-0.210315 4:0.981843 
3 1:-0.848613 2:-0.801823 3:0.349083 4:0.600544 
0.08605049176060357 1:-0.236721 2:0.140574 3:0.190827 4:0.940638 
3 1:-0.882989 2:-0.786885 3:0.472631 4:0.414337 
1.609006343294821 1:-0.827234 2:-0.822409 3:0.495063 4:0.0361384 
3 1:-0.831832 2:-0.852203 3:-0.502746 4:0.518133 
3 1:-0.867617 2:-0.798209 3:0.51652 4:0.28567 
3 1:-0.887504 2:-0.705179 3:0.346134 4:-0.550196 
0.3088423575272657 1:-0.0705336 2:-0.0679269 3:0.231034 4:0.4191 
3 1:-0.82746 2:-0.838824 3:0.398827 4:0.752066 
0.1685663875564778 1:-0.819525 2:0.0358967 3:-0.215215 4:0.677775 
3 1:-0.855728 2:-0.697507 3:-0.0612085 4:-0.142556 
3 1:-0.839334 2:-0.818865 3:-0.435329 4:0.793527 
3 1:-0.884005 2:-0.806771 3:0.379318 4:-0.466858 
0.1003452030908721 1:-0.469214 2:0.063228 3:0.381966 4:0.850108 
3 1:-0.791431 2:-0.835867 3:-0.339705 4:0.4776 
3 1:-0.857928 2:-0.865683 3:0.328055 4:-0.344937 
3 1:-0.831355 2:-0.821015 3:0.519669 4:0.670774 
3 1:-0.883473 2:-0.792443 3:0.317041 4:-0.143131 
3 1:-0.85561 2:-0.797702 3:0.432885 4:0.673748 
1.169409640702405 1:-0.35232 2:-0.867763 3:-0.263272 4:0.662048 
3 1:-0.844007 2:-0.795242 3:0.436993 4:0.394838 
3 1:-0.844201 2:-0.928982 3:0.382571 4:-0.0439702 
3 1:-0.851793 2:-0.799056 3:0.738912 4:-0.0280829 
3 1:-0.833273 2:-0.863505 3:0.20976 4:0.230113 
3 1:-0.481192 2:-0.869538 3:0.429207 4:0.628707 
1.781545084114606 1:-1 2:-0.674179 3:0.258895 4:0.344937 
0.8122303247163977 1:-1 2:-0.642865 3:0.328409 4:0.161544 
0.1854890854917454 1:-0.849864 2:0.0411491 3:-0.348998 4:-0.0639496 
3 1:-0.869538 2:-0.792296 3:0.604927 4:0.397203 
3 1:-0.837381 2:-0.837726 3:-0.183317 4:0.0655797 
1.063363970631118 1:-0.8174 2:-0.78484 3:-0.568336 4:0.440965 
0.2182125872693295 1:-0.834493 2:-0.784423 3:-0.439823 4:-0.0178215 
3 1:-0.834908 2:-0.834539 3:-0.197377 4:0.0622553 
3 1:-0.878013 2:-0.782773 3:-0.216006 4:0.0842162 
2.080669709539669 1:-0.885023 2:-0.426441 3:0.174212 4:-0.522832 
3 1:-1 2:-0.731859 3:0.537861 4:0.0253657 
3 1:-0.831292 2:-0.828801 3:0.459143 4:0.360601 
3 1:-0.889847 2:-0.636297 3:0.551657 4:-0.73426 
3 1:-0.834385 2:-0.871952 3:0.481324 4:0.178199 
3 1:-0.858895 2:-0.807394 3:0.47647 4:-0.0945097 
3 1:-0.865201 2:-0.782933 3:0.396799 4:-0.0278271 
1.64756502248695 1:-0.826649 2:-0.840154 3:0.298021 4:0.883833 
3 1:-0.871014 2:-0.750482 3:0.32326 4:-0.161992 
3 1:-0.466304 2:-0.775914 3:0.619749 4:0.392695 
3 1:-0.836674 2:-0.814568 3:-0.21098 4:0.0658994 
3 1:-0.866539 2:-0.803963 3:0.440705 4:-0.0159994 
3 1:-0.872529 2:-0.818334 3:0.289372 4:0.0333253 
3 1:-0.867106 2:-0.813381 3:-0.517717 4:0.0466554 
3 1:-1 2:-0.699369 3:0.346043 4:0.813793 
3 1:-0.545378 2:-0.828 3:0.687751 4:0.65038 
3 1:-0.845077 2:-0.911906 3:0.215964 4:-0.0989531 
3 1:-0.856983 2:-0.836942 3:0.333554 4:0.405674 
0.583771853941939 1:-0.874971 2:-0.152595 3:-0.231948 4:-0.309806 
3 1:-0.838599 2:-0.835116 3:-0.540453 4:0.0620954 
3 1:-0.858462 2:-0.813659 3:0.546938 4:0.766706 
0.24040256310538 1:0.246121 2:-0.312447 3:-0.178074 4:0.737297 
3 1:-0.85343 2:-0.837519 3:0.348976 4:0.114041 
0.125761369570262 1:-0.661667 2:0.427199 3:-0.1901 4:0.903012 
3 1:-0.80897 2:-0.917913 3:0.223721 4:0.610677 
0.5879972413836072 1:1 2:0.144157 3:-0.361862 4:0.974107 
3 1:-0.870198 2:-0.826131 3:0.185878 4:0.222409 
3 1:-0.850688 2:-0.82535 3:-0.389834 4:0.292065 
3 1:-0.873771 2:-0.775473 3:-0.498015 4:-0.10167 
3 1:-0.835213 2:-0.849521 3:-0.215596 4:0.476193 
-3 1:-0.865268 2:-0.88153 3:0.257912 4:0.304979 
-3 1:-0.867294 2:-0.817928 3:0.510158 4:-0.0461441 
-3 1:-0.888582 2:-0.691676 3:0.577009 4:-0.665436 
-2.536321568399224 1:-0.86747 2:-0.854012 3:-0.478765 4:-0.142332 
-3 1:-0.872011 2:-0.800806 3:0.613222 4:0.61285 
-3 1:-0.814314 2:-0.8873 3:0.426857 4:0.370414 
-0.6638146010716525 1:-0.854354 2:-0.885708 3:-0.490486 4:-0.074978 
-3 1:-0.905655 2:-0.825184 3:-0.408213 4:0.577399 
-3 1:-0.528205 2:-0.929929 3:0.229322 4:0.701782 
-3 1:-0.888557 2:-0.823061 3:0.602086 4:-0.648621 
-3 1:-0.867622 2:-0.808742 3:0.418598 4:0.191369 
-3 1:-0.867216 2:-0.827924 3:0.165399 4:0.142172 
-3 1:-0.885932 2:-0.854426 3:-0.4272 4:0.583665 
-3 1:-0.873643 2:-0.875484 3:0.271096 4:0.0875413 
-3 1:-0.461306 2:-0.909179 3:0.275847 4:0.455989 
-0.001774322474061025 1:-0.72545 2:-0.909377 3:0.549265 4:0.601503 
-1.753141359492706 1:-0.877421 2:-0.892539 3:0.258976 4:-0.0683609 
-3 1:-0.869017 2:-0.91044 3:0.206379 4:0.589643 
-3 1:-0.860562 2:-0.91669 3:-0.603227 4:0.0978985 
-3 1:-0.868489 2:-0.844052 3:0.328856 4:-0.133477 
-3 1:-0.671484 2:-0.848416 3:0.424911 4:0.449501 
-3 1:-0.849823 2:-0.835981 3:-0.43871 4:0.581299 
-3 1:-0.855917 2:-0.874268 3:0.40598 4:0.25348 
-3 1:-0.855424 2:-0.799845 3:-0.519876 4:-0.228546 
-3 1:-0.840838 2:-0.905125 3:-0.152456 4:0.0300328 
-3 1:-0.183929 2:-0.923497 3:0.412871 4:0.570431 
-3 1:-0.877467 2:-0.780775 3:-0.360086 4:-0.103652 
-3 1:-0.789558 2:-0.92527 3:-0.310611 4:0.204795 
-3 1:-0.838943 2:-0.822173 3:-0.340714 4:0.221705 
-3 1:-0.88227 2:-0.617704 3:-0.170088 4:-0.256773 
-3 1:-0.860658 2:-0.789037 3:0.598826 4:0.468169 
-2.518341662008607 1:-0.891614 2:-0.818635 3:0.87977 4:-0.822872 
-3 1:-0.821821 2:-0.804008 3:0.557512 4:0.801838 
-3 1:-0.876987 2:-0.809714 3:-0.382558 4:-0.0803804 
-3 1:-0.883265 2:-0.786611 3:0.613821 4:0.161224 
-0.0793556729307365 1:-0.493954 2:-0.905074 3:-0.628804 4:-0.698681 
-1.566524129797431 1:-0.883612 2:-0.930187 3:-0.769968 4:0.89566 
-3 1:-0.878031 2:-0.853655 3:-0.259764 4:0.145464 
-3 1:-0.445821 2:-0.891637 3:0.601573 4:0.458867 
-3 1:-0.826474 2:-0.882208 3:-0.142169 4:0.238775 
-3 1:-0.849615 2:-0.883369 3:0.70796 4:0.87648 
-3 1:-0.830163 2:-0.790552 3:-0.202057 4:0.509598 
-2.539772857746447 1:-0.31699 2:-0.908036 3:0.666389 4:0.577432 
-3 1:-0.62681 2:-0.943487 3:0.351387 4:0.76968 
-3 1:-0.896644 2:-0.81997 3:-0.284757 4:0.0521537 
-3 1:-0.878693 2:-0.679917 3:-0.229072 4:0.495501 
-3 1:-0.860037 2:-0.807509 3:0.83024 4:0.52654 
-3 1:-0.869728 2:-0.890251 3:0.231646 4:0.209558 
-3 1:-0.866992 2:-0.799719 3:0.43 4:0.00324463 
-3 1:-0.374516 2:-0.898153 3:-0.186231 4:0.521106 
-3 1:-0.871658 2:-0.84554 3:-0.329826 4:0.211924 
-3 1:-0.851823 2:-0.688802 3:0.556428 4:0.785599 
-0.1474693202233786 1:-0.891554 2:-0.767794 3:0.320217 4:-0.898889 
-3 1:-0.897889 2:-0.628043 3:0.364608 4:-0.761176 
-3 1:-0.884592 2:-0.867065 3:0.543893 4:0.779814 
-3 1:-0.832701 2:-0.775502 3:0.439389 4:0.601854 
-3 1:-0.8831 2:-0.875618 3:-0.245462 4:0.143291 
-0.3762698036149075 1:-0.892768 2:-0.852077 3:-0.41183 4:-0.889875 
-3 1:-0.85764 2:-0.875644 3:-0.257554 4:0.334484 
-3 1:-0.854482 2:-0.864504 3:0.406105 4:0.406665 
-2.111008683999906 1:-0.890241 2:-0.84945 3:0.765998 4:-0.768241 
-3 1:-0.886945 2:-0.849035 3:0.396085 4:0.364757 
-1.604536779077586 1:-0.405293 2:-0.848518 3:0.44221 4:-0.510621 
-3 1:-0.86438 2:-0.819977 3:0.498638 4:0.123247 
-0.1215854866617664 1:-0.884336 2:-0.856454 3:0.729865 4:-0.48834 
-3 1:-0.850786 2:-0.885691 3:-0.167349 4:0.21675 
-3 1:-0.888026 2:-0.873213 3:0.308296 4:0.612786 
-3 1:-0.883527 2:-0.855906 3:0.296844 4:0.461968 
-2.799172320722765 1:-0.890805 2:-0.865158 3:0.521175 4:-0.807368 
-3 1:-0.877125 2:-0.671173 3:0.307895 4:-0.281803 
-3 1:-0.881001 2:-0.916192 3:-0.609468 4:0.0702464 
-0.5560127114124838 1:-0.495864 2:-0.908979 3:0.318315 4:-0.491793 
-3 1:-0.870581 2:-0.772684 3:0.249488 4:0.564293 
-3 1:-0.261996 2:-0.866512 3:0.289436 4:0.609047 
-1.614615854341563 1:-0.881825 2:-0.788483 3:0.344762 4:-0.420347 
-0.9248443618406007 1:-0.892248 2:-0.873592 3:-0.939098 4:-0.997315 
-3 1:-0.881616 2:-0.717486 3:0.242381 4:-0.432206 
-3 1:-0.867568 2:-0.823681 3:0.461566 4:-0.0973228 
-1.247576104385737 1:-0.265233 2:-0.913258 3:-0.353006 4:-0.606138 
-1.593034219179053 1:-0.992446 2:-0.555598 3:-0.2175 4:-0.457684 
-0.2819094842975342 1:-0.910251 2:-0.97234 3:-1 4:0.700983 
-3 1:-0.984588 2:-0.718196 3:0.442161 4:-0.318948 
-1.856357039124287 1:-0.911302 2:-0.868339 3:-0.241807 4:-0.912443 
-0.2253091916289631 1:-0.985807 2:-0.847398 3:-0.402637 4:0.13677 
-2.620021131883843 1:-0.926948 2:-0.802072 3:0.574789 4:0.627492 
-2.969143887398311 1:-0.926948 2:-0.802072 3:0.574789 4:0.627492 
-2.800653749732057 1:-0.954695 2:-0.897338 3:0.202783 4:0.731607 
-3 1:-0.998458 2:-0.631199 3:0.400383 4:-0.720706 
-3 1:-0.953911 2:-0.843185 3:-0.244524 4:0.507105 
-3 1:-0.962498 2:-0.770308 3:0.320891 4:-0.0588029 
-3 1:-0.962498 2:-0.770308 3:0.320891 4:-0.0588029 
-0.3409015626464448 1:-0.999192 2:-0.828272 3:-0.402076 4:-0.772908 
-3 1:-0.963925 2:-0.728062 3:0.453202 4:-0.112283 
-3 1:-0.973322 2:-0.777616 3:0.340748 4:0.347943 
-3 1:-0.977634 2:-0.660102 3:-0.227978 4:0.268121 
-1.978087288347635 1:-0.925427 2:-0.839901 3:-0.426746 4:0.510174 
-2.11580747022908 1:-0.99621 2:-0.722036 3:0.414038 4:-0.588716 
-3 1:-0.983935 2:-0.558778 3:0.399322 4:0.123983 
-3 1:-0.958757 2:-0.823793 3:0.461375 4:0.775817 
-2.653991691287775 1:-0.980394 2:-0.91751 3:0.932665 4:0.992551 
-3 1:-0.899747 2:-0.8336 3:0.475201 4:0.0322065 
-3 1:-0.979047 2:-0.74036 3:0.263169 4:0.500904 
-3 1:-0.907692 2:-0.862282 3:-0.300732 4:0.658627 
-3 1:-0.997114 2:-0.780791 3:0.616593 4:0.137505 
-1.047368577915143 1:-0.953377 2:-0.867853 3:-0.483185 4:0.876161 
-3 1:-0.953377 2:-0.867853 3:-0.483185 4:0.876161 
-3 1:-0.957091 2:-0.761859 3:0.195951 4:0.0882443 
-3 1:-0.881838 2:-0.807782 3:0.344864 4:0.0208263 
-1.474107723642446 1:-0.969116 2:-0.894086 3:0.43517 4:0.916471 
-3 1:-0.907692 2:-0.840215 3:0.545097 4:0.830192 
-3 1:-0.990931 2:-0.724982 3:0.671558 4:0.727644 
-3 1:-0.892065 2:-0.831876 3:-0.199672 4:0.189259 
-3 1:-0.907571 2:-0.762779 3:-0.346006 4:0.724287 
-0.8328491527231676 1:-0.969527 2:-0.733567 3:0.17069 4:-0.152082 
-1.495114338189509 1:-0.84979 2:-0.862318 3:0.818143 4:0.742571 
-3 1:-0.861256 2:-0.850884 3:0.480097 4:0.248142 
-3 1:-0.854033 2:-0.8129 3:0.67391 4:0.492816 
-2.329080805201606 1:-0.343667 2:-0.873342 3:0.722158 4:0.263326 
-0.4626424551608658 1:-0.89041 2:-0.89604 3:-0.759789 4:0.631231 
-3 1:-0.885246 2:-0.930685 3:-0.385823 4:1 
-3 1:-0.882646 2:-0.79781 3:0.441908 4:0.678606 
-3 1:-0.878849 2:-0.797192 3:0.589146 4:-0.0886597 
-3 1:-0.882762 2:-0.80962 3:0.519947 4:-0.371949 
-0.07017743443587837 1:-0.876461 2:-0.858794 3:0.511126 4:-0.229441 
-3 1:-0.864904 2:-0.839698 3:0.530762 4:0.409798 
-3 1:-0.869672 2:-0.875504 3:0.292405 4:0.327196 
-3 1:-0.908743 2:-0.871908 3:0.197254 4:0.314825 
-3 1:-0.875098 2:-0.87158 3:-0.11692 4:0.0329417 
-3 1:-0.871342 2:-0.831312 3:0.225258 4:-0.158475 
-3 1:-0.878565 2:-0.900382 3:0.220401 4:0.198114 
-0.09086929785350231 1:-0.157596 2:-0.902361 3:0.371185 4:-0.489523 
-3 1:-0.87767 2:-0.776301 3:0.22397 4:-0.344713 
-3 1:-0.859142 2:-0.811081 3:0.555642 4:0.164805 
-3 1:-0.86777 2:-0.887973 3:-0.511831 4:0.686374 
-3 1:-0.811634 2:-0.715846 3:0.23429 4:-0.532358 
-3 1:-0.852556 2:-0.891558 3:0.405746 4:-0.0875729 
-3 1:-0.87866 2:-0.850218 3:0.438881 4:0.0243107 
-3 1:-0.874373 2:-0.825048 3:0.608316 4:0.265884 
-3 1:-0.876061 2:-0.863578 3:0.310109 4:0.372844 
-2.721293108260494 1:-0.900815 2:-0.858724 3:0.483668 4:0.0313434 
-3 1:-0.88586 2:-0.72622 3:0.196821 4:-0.39634 
-3 1:-0.846267 2:-0.896599 3:-0.131383 4:0.0976425 
-3 1:-0.606212 2:-0.871138 3:0.654849 4:1 
-3 1:-0.864777 2:-0.862841 3:0.483746 4:-0.118293 
-3 1:-0.862091 2:-0.855249 3:0.345189 4:0.276464 
-3 1:-0.864279 2:-0.839983 3:0.34365 4:0.504099 
-3 1:-0.864058 2:-0.800133 3:0.257206 4:-0.196675 
-3 1:-0.87808 2:-0.895568 3:0.721565 4:-0.0569488 
-0.8627104251919059 1:-0.85461 2:-0.885005 3:0.467005 4:-0.216079 
-3 1:-0.883986 2:-0.659077 3:0.286307 4:-0.494766 
-3 1:-0.865518 2:-0.710293 3:0.156064 4:-0.201982 
-3 1:-0.882875 2:-0.742932 3:0.530459 4:0.319364 
-3 1:-0.926437 2:-0.801215 3:0.386014 4:0.702709 
-2.122666420298637 1:-0.875504 2:-0.740112 3:-0.298596 4:-0.305075 
-3 1:-0.811074 2:-0.884298 3:0.489317 4:0.272372 
-3 1:-0.846241 2:-0.757644 3:0.551591 4:0.6499 
-3 1:-0.874984 2:-0.838426 3:0.348069 4:0.490034 
-3 1:-0.857499 2:-0.892873 3:0.248345 4:0.170847 
-3 1:-0.883142 2:-0.704434 3:-0.213502 4:-0.238744 
-3 1:-0.871618 2:-0.863486 3:0.583135 4:-0.104579 
-3 1:-0.786132 2:-0.860161 3:-0.490215 4:0.24958 
-3 1:-0.883844 2:-0.84416 3:0.649281 4:-0.0846959 
-3 1:-0.883471 2:-0.454331 3:-0.17233 4:-0.471174 
-3 1:-0.843952 2:-0.81606 3:0.38379 4:0.596548 
-3 1:-0.871382 2:-0.780806 3:0.303087 4:-0.25428 
-3 1:-0.879199 2:-0.85506 3:0.235533 4:0.0230639 
-3 1:-0.879185 2:-0.756159 3:0.753475 4:0.687493 
-3 1:-0.849812 2:-0.907185 3:0.312231 4:0.0838333 
